<?xml version="1.0" encoding="US-ASCII"?>


<!--
	Bayesian network in XMLBIF v0.3 (BayesNet Interchange Format)
	Produced by JavaBayes (http://www.cs.cmu.edu/~javabayes/
	Output created Sun Aug 26 20:01:37 CEST 2018
-->



<!-- DTD for the XMLBIF 0.3 format -->
<!DOCTYPE BIF [
        <!ELEMENT BIF ( NETWORK )*>
        <!ATTLIST BIF VERSION CDATA #REQUIRED>
        <!ELEMENT NETWORK ( NAME, ( PROPERTY | VARIABLE | DEFINITION )* )>
        <!ELEMENT NAME (#PCDATA)>
        <!ELEMENT VARIABLE ( NAME, ( OUTCOME |  PROPERTY )* ) >
        <!ATTLIST VARIABLE TYPE (nature|decision|utility) "nature">
        <!ELEMENT OUTCOME (#PCDATA)>
        <!ELEMENT DEFINITION ( FOR | GIVEN | TABLE | PROPERTY )* >
        <!ELEMENT FOR (#PCDATA)>
        <!ELEMENT GIVEN (#PCDATA)>
        <!ELEMENT TABLE (#PCDATA)>
        <!ELEMENT PROPERTY (#PCDATA)>
        ]>


<BIF VERSION="0.3">
    <NETWORK>
        <NAME>[Training$]</NAME>

        <!-- Variables -->
        <VARIABLE TYPE="nature">
            <NAME>success</NAME>
            <OUTCOME>2</OUTCOME>
            <OUTCOME>4</OUTCOME>
            <PROPERTY>position = (0, 0)</PROPERTY>
        </VARIABLE>

        <VARIABLE TYPE="nature">
            <NAME>MatSciEng_d</NAME>
            <OUTCOME><![CDATA[<2.5]]></OUTCOME>
            <OUTCOME><![CDATA[>2.5<4.5]]></OUTCOME>
            <OUTCOME><![CDATA[>4.5<6.5]]></OUTCOME>
            <OUTCOME><![CDATA[>6.5]]></OUTCOME>
            <PROPERTY>position = (150, 0)</PROPERTY>
        </VARIABLE>

        <VARIABLE TYPE="nature">
            <NAME>CompSkill_d</NAME>
            <OUTCOME><![CDATA[<1.5]]></OUTCOME>
            <OUTCOME><![CDATA[>1.5<4.5]]></OUTCOME>
            <OUTCOME><![CDATA[>4.5]]></OUTCOME>
            <PROPERTY>position = (300, 0)</PROPERTY>
        </VARIABLE>

        <VARIABLE TYPE="nature">
            <NAME>SecEduMark_d</NAME>
            <OUTCOME><![CDATA[<1.5]]></OUTCOME>
            <OUTCOME><![CDATA[>1.5<4.5]]></OUTCOME>
            <OUTCOME><![CDATA[>4.5]]></OUTCOME>
            <PROPERTY>position = (450, 0)</PROPERTY>
        </VARIABLE>

        <VARIABLE TYPE="nature">
            <NAME>PriEduMark_d</NAME>
            <OUTCOME><![CDATA[<2.5]]></OUTCOME>
            <OUTCOME><![CDATA[>2.5<5.5]]></OUTCOME>
            <OUTCOME><![CDATA[>5.5]]></OUTCOME>
            <PROPERTY>position = (0, 80)</PROPERTY>
        </VARIABLE>

        <VARIABLE TYPE="nature">
            <NAME>module1_Group_d</NAME>
            <OUTCOME><![CDATA[<1.5]]></OUTCOME>
            <OUTCOME><![CDATA[>1.5<9.5]]></OUTCOME>
            <OUTCOME><![CDATA[>9.5]]></OUTCOME>
            <PROPERTY>position = (150, 80)</PROPERTY>
        </VARIABLE>

        <VARIABLE TYPE="nature">
            <NAME>module2_Group_d</NAME>
            <OUTCOME><![CDATA[<1.5]]></OUTCOME>
            <OUTCOME><![CDATA[>1.5<2.5]]></OUTCOME>
            <OUTCOME><![CDATA[>2.5<3.5]]></OUTCOME>
            <OUTCOME><![CDATA[>3.5<7.5]]></OUTCOME>
            <OUTCOME><![CDATA[>7.5]]></OUTCOME>
            <PROPERTY>position = (300, 80)</PROPERTY>
        </VARIABLE>

        <VARIABLE TYPE="nature">
            <NAME>module3_Group_d</NAME>
            <OUTCOME><![CDATA[<1.5]]></OUTCOME>
            <OUTCOME><![CDATA[>1.5<6.5]]></OUTCOME>
            <OUTCOME><![CDATA[>6.5]]></OUTCOME>
            <PROPERTY>position = (450, 80)</PROPERTY>
        </VARIABLE>

        <VARIABLE TYPE="nature">
            <NAME>module4_Group_d</NAME>
            <OUTCOME><![CDATA[<1.5]]></OUTCOME>
            <OUTCOME><![CDATA[>1.5]]></OUTCOME>
            <PROPERTY>position = (0, 160)</PROPERTY>
        </VARIABLE>

        <VARIABLE TYPE="nature">
            <NAME>module5_Group_d</NAME>
            <OUTCOME><![CDATA[<1.5]]></OUTCOME>
            <OUTCOME><![CDATA[>1.5<5.5]]></OUTCOME>
            <OUTCOME><![CDATA[>5.5]]></OUTCOME>
            <PROPERTY>position = (150, 160)</PROPERTY>
        </VARIABLE>


        <!-- Probability distributions -->
        <DEFINITION>
            <FOR>success</FOR>
            <GIVEN>MatSciEng_d</GIVEN>
            <GIVEN>CompSkill_d</GIVEN>
            <GIVEN>SecEduMark_d</GIVEN>
            <GIVEN>PriEduMark_d</GIVEN>
            <TABLE>0.9770642 0.02293581 0.7727273 0.2272727 0.5833333 0.4166667 0.84375 0.15625 0.5 0.5 0.5 0.5 0.5 0.5 0.5 0.5 0.5 0.5 0.8333333 0.1666667 0.5833333 0.4166667 0.5 0.5 0.5833333 0.4166667 0.5 0.5 0.4166667 0.5833333 0.5 0.5 0.5 0.5 0.5 0.5 0.5 0.5 0.5 0.5 0.5 0.5 0.5 0.5 0.5 0.5 0.5 0.5 0.5 0.5 0.3571429 0.6428571 0.4166667 0.5833333 0.9712644 0.02873558 0.6875 0.3125 0.5 0.5 0.8055556 0.1944444 0.5833333 0.4166667 0.5833333 0.4166667 0.5 0.5 0.5 0.5 0.5 0.5 0.875 0.125 0.6875 0.3125 0.5 0.5 0.7727273 0.2272727 0.5833333 0.4166667 0.5 0.5 0.5 0.5 0.3888889 0.6111111 0.4166667 0.5833333 0.5 0.5 0.5 0.5 0.5 0.5 0.5 0.5 0.25 0.75 0.4166667 0.5833333 0.5 0.5 0.25 0.75 0.35 0.65 0.9390244 0.06097561 0.5833333 0.4166667 0.5 0.5 0.8214286 0.1785714 0.5 0.5 0.5 0.5 0.5 0.5 0.6428571 0.3571429 0.5 0.5 0.875 0.125 0.5 0.5 0.3571429 0.6428571 0.6071429 0.3928571 0.65 0.35 0.5 0.5 0.4166667 0.5833333 0.5 0.5 0.5 0.5 0.5833333 0.4166667 0.6428571 0.3571429 0.5833333 0.4166667 0.5 0.5 0.3125 0.6875 0.3571429 0.6428571 0.5 0.5 0.21875 0.78125 0.1590909 0.8409091 0.4166667 0.5833333 0.5 0.5 0.5 0.5 0.5 0.5 0.5 0.5 0.5 0.5 0.5 0.5 0.5 0.5 0.5 0.5 0.4375 0.5625 0.3125 0.6875 0.3125 0.6875 0.5833333 0.4166667 0.2777778 0.7222222 0.3571429 0.6428571 0.3571429 0.6428571 0.2692308 0.7307692 0.3125 0.6875 0.3125 0.6875 0.3571429 0.6428571 0.3125 0.6875 0.3125 0.6875 0.14 0.86 0.15625 0.84375 0.3571429 0.6428571 0.1388889 0.8611111 0.0892857 0.9107143 </TABLE>
        </DEFINITION>

        <DEFINITION>
            <FOR>MatSciEng_d</FOR>
            <GIVEN>CompSkill_d</GIVEN>
            <TABLE>0.446558 0.3668478 0.178442 0.008152187 0.1197479 0.262605 0.3634454 0.2542017 0.0301418 0.1223404 0.2712766 0.5762412 </TABLE>
        </DEFINITION>

        <DEFINITION>
            <FOR>CompSkill_d</FOR>
            <GIVEN>SecEduMark_d</GIVEN>
            <GIVEN>PriEduMark_d</GIVEN>
            <TABLE>0.8169697 0.1624242 0.0206061 0.3888889 0.4222222 0.1888889 0.1777778 0.4444444 0.3777778 0.5977011 0.3218391 0.08045983 0.0606061 0.2651515 0.6742424 0.115942 0.2028985 0.6811595 0.1666667 0.4666667 0.3666666 0.0679012 0.3271605 0.6049383 0.0292398 0.1345029 0.8362573 </TABLE>
        </DEFINITION>

        <DEFINITION>
            <FOR>SecEduMark_d</FOR>
            <GIVEN>PriEduMark_d</GIVEN>
            <TABLE>0.8158158 0.1641642 0.02002001 0.2259887 0.3446328 0.4293785 0.1372549 0.2313726 0.6313725 </TABLE>
        </DEFINITION>

        <DEFINITION>
            <FOR>PriEduMark_d</FOR>
            <TABLE>0.6267427 0.2179975 0.1552598 </TABLE>
        </DEFINITION>

        <DEFINITION>
            <FOR>module1_Group_d</FOR>
            <GIVEN>success</GIVEN>
            <GIVEN>PriEduMark_d</GIVEN>
            <TABLE>0.8941799 0.0941799 0.01164019 0.5585586 0.3693694 0.07207203 0.5151515 0.2424242 0.2424243 0.115942 0.4637681 0.4202899 0.0542636 0.3565891 0.5891473 0.1223629 0.4008439 0.4767932 </TABLE>
        </DEFINITION>

        <DEFINITION>
            <FOR>module2_Group_d</FOR>
            <GIVEN>CompSkill_d</GIVEN>
            <GIVEN>SecEduMark_d</GIVEN>
            <GIVEN>PriEduMark_d</GIVEN>
            <TABLE>0.2982456 0.377193 0.2894737 0.0307018 0.004385829 0.4 0.4 0.0666667 0.0666667 0.06666654 0.3333333 0.1666667 0.1666667 0.1666667 0.1666666 0.4210526 0.2631579 0.2368421 0.0526316 0.02631575 0.3333333 0.1666667 0.1666667 0.1666667 0.1666666 0.1666667 0.1666667 0.1666667 0.3333333 0.1666666 0.2 0.2 0.2 0.2 0.2 0.2857143 0.2857143 0.1428571 0.1428571 0.1428572 0.2 0.2 0.2 0.2 0.2 0.2708333 0.3541667 0.2916667 0.0625 0.02083331 0.1875 0.1875 0.3125 0.25 0.0625 0.1 0.2 0.1 0.5 0.1 0.2727273 0.2727273 0.2727273 0.1363636 0.0454545 0.2 0.0666667 0.2666667 0.4 0.0666666 0.125 0.125 0.25 0.25 0.25 0.125 0.25 0.125 0.375 0.125 0.047619 0.0952381 0.2380952 0.3809524 0.2380953 0.0909091 0.0909091 0.2727273 0.3636364 0.1818181 0.2222222 0.2222222 0.1111111 0.3333333 0.1111112 0.1111111 0.1111111 0.4444444 0.2222222 0.1111112 0.1111111 0.2222222 0.4444444 0.1111111 0.1111112 0.125 0.125 0.125 0.5 0.125 0.0606061 0.030303 0.1818182 0.5757576 0.1515151 0.0526316 0.1052632 0.1052632 0.4736842 0.2631578 0.1428571 0.1428571 0.2857143 0.2857143 0.1428572 0.0277778 0.0277778 0.0833333 0.5277778 0.3333333 0.0196078 0.0196078 0.0784314 0.4509804 0.4313726 </TABLE>
        </DEFINITION>

        <DEFINITION>
            <FOR>module3_Group_d</FOR>
            <GIVEN>success</GIVEN>
            <GIVEN>CompSkill_d</GIVEN>
            <GIVEN>PriEduMark_d</GIVEN>
            <TABLE>0.9176319 0.0720721 0.01029599 0.7037037 0.2037037 0.0925926 0.3809524 0.2380952 0.3809524 0.7777778 0.1944444 0.02777779 0.4833333 0.3333333 0.1833334 0.2777778 0.4444444 0.2777778 0.4444444 0.2777778 0.2777778 0.1851852 0.5185185 0.2962963 0.2083333 0.3333333 0.4583334 0.3809524 0.3809524 0.2380952 0.3333333 0.3333333 0.3333334 0.3333333 0.3333333 0.3333334 0.2051282 0.6666667 0.1282051 0.2839506 0.4320988 0.2839506 0.2037037 0.4814815 0.3148148 0.4358974 0.3589744 0.2051282 0.1822917 0.4322917 0.3854166 0.1313131 0.2525252 0.6161617 </TABLE>
        </DEFINITION>

        <DEFINITION>
            <FOR>module4_Group_d</FOR>
            <GIVEN>success</GIVEN>
            <GIVEN>PriEduMark_d</GIVEN>
            <TABLE>0.963492 0.03650802 0.8513514 0.1486486 0.7727273 0.2272727 0.7173913 0.2826087 0.6104651 0.3895349 0.4746836 0.5253164 </TABLE>
        </DEFINITION>

        <DEFINITION>
            <FOR>module5_Group_d</FOR>
            <GIVEN>success</GIVEN>
            <GIVEN>CompSkill_d</GIVEN>
            <GIVEN>PriEduMark_d</GIVEN>
            <TABLE>0.9330759 0.0604891 0.006434977 0.7037037 0.2037037 0.0925926 0.5238095 0.2380952 0.2380953 0.5777778 0.3944444 0.02777779 0.1833333 0.7333333 0.08333343 0.2777778 0.4444444 0.2777778 0.2777778 0.4444444 0.2777778 0.1851852 0.2962963 0.5185185 0.2083333 0.3333333 0.4583334 0.5238095 0.2380952 0.2380953 0.3333333 0.3333333 0.3333334 0.3333333 0.3333333 0.3333334 0.1282051 0.7435898 0.1282051 0.0987654 0.6172839 0.2839507 0.0925926 0.4259259 0.4814815 0.1282051 0.6666667 0.2051282 0.0260417 0.3854167 0.5885416 0.0252525 0.2070707 0.7676768 </TABLE>
        </DEFINITION>


    </NETWORK>
</BIF>